{"weights": [[[0.20874461121790022, -0.08155806934225701, 0.21604270924126842, 0.6748092292890083, -0.18993419230760397, -0.15313648375474395, 0.8120905214108959, 0.37235552305652625, -0.1802559543536825, 0.35698091496047046, -0.2924694144349349, -0.19317136511140043, 0.08096238258157727, -0.9653791120329467, -0.8450456366158717, -0.3233400703004049], [-0.5194768205578099, 0.11868475288957529, -0.5517895272803763, -0.7364882884373345, 0.4671322458981862, -0.1752969089113237, 0.11298544861751494, -0.7047593378531114, -0.16359068874995458, 0.22812679905454908, -0.6890302590828714, 0.12793314267634098, -0.3280849094391154, 0.023748432775220908, -0.22973407865025547, 0.8724947691982329], [-0.02481696523983573, -0.5231724736105857, 0.38592883756601976, -0.6107710238296008, 0.1306562075457028, -0.9711393889176148, -0.651733752532177, 0.10177639098276275, 0.35698620201223763, 0.10296356979991625, -0.04545926130384727, -0.15076854683566135, -0.7282653655124961, -0.3575905524615065, -0.23093559178350656, 0.4924898997023178], [0.15290868889349876, -0.8722508556683578, 0.08692931610454076, -0.2877663039343171, -0.4703443056197584, 0.27347492797686557, 0.5553343015837682, 0.4691926468997048, -0.35264210766430165, -0.07296258973566494, 0.08775742782529437, 0.468897650049879, -0.2912179173222439, -0.04974415972032288, -0.516965647230611, -0.6207926349321272], [0.38679295962965815, 0.6709058838993002, -0.1373219443934665, 0.4199478276188798, -0.00507859353196532, -0.36955704264986056, 0.281323938770993, 0.765492027827953, 0.09273869859614521, 0.8382389032626412, -1.471355358574489, 0.39587447891644373, -0.0282769378629733, -0.0390206553898979, 0.09278079718282839, -1.0205788133158413], [-0.0989059253039863, 0.17006791390722723, 0.661560412605745, -0.35498159317169536, -0.555115509944227, -0.2941589299222841, 0.5404092479293768, 0.16758521731559753, -0.19930156753952025, 0.3693598915641956, -0.020615316406050813, 0.4337722341069058, -0.4120025773809762, -0.07155266405250647, -0.1590113748431566, -0.7436791768203496], [0.16037750543337218, 0.10447817682163843, -0.04946912488952054, -0.17050723988715427, -0.7426505721462193, -0.24187914546018335, -0.12395801631629855, -0.39987446672748334, -0.00944115375406399, 0.27798425254914727, 0.7463695031928715, 0.05147794432258572, 0.09357941117977349, 0.03443290384847806, -0.9354371616680449, -0.021360327368162957], [-0.01393662510470788, 1.234167908207634, -0.16133201398770453, 0.09017289040838343, -0.11196675610100083, -0.6235110090313905, 0.562213265507436, 0.3631769304049896, 0.44801963580707654, -0.3837146686849982, 0.6736045154584562, -0.6371343818402454, 0.2886813908760714, 1.1221317479793456, -0.4562459435768476, -0.3567704427807893]], [[0.04264830334636634, -0.21701004041793262, -0.5304952358969688, 0.08449312213785291, -0.4048483612029878, 0.16977980154521144, -0.33024147636356843, 0.4947194266426975], [-0.25265561713517704, -0.18057989496261245, 0.34542628412388826, -0.3177162864526152, -0.017906374409791086, 0.4656258457696277, -0.5776061961300214, -0.03788367625695429], [0.10163902050214427, 0.25828528840992065, -0.4270334056086558, -0.4239464631761304, 0.16808850239314463, 0.11736749598867219, 0.0238531540502872, 0.09968858061329047], [-0.24659815682343508, 0.06489606940218033, 0.11883985889965565, -0.18226057764588197, 0.6396426280019568, 0.19570409996265967, -0.42179595098799905, 0.21138565587032146], [-0.361729747623551, 0.29020378403873776, 0.4229625219025708, -0.2668003847088285, 0.338528744896048, 0.16191559525992405, 0.2609324256644669, 0.6586371081012045], [-0.09955425405480592, -0.1553320458047652, -0.3460372783891983, -0.33697402771891694, 0.056529379113743825, 0.16557376544504518, 0.06812396827231859, 0.42381501829408513], [0.012550258370249819, 0.3872412246235972, -0.01179650840254916, 1.1388579479529477, 0.0984257664970113, -0.29830358903014054, -0.38568416983781006, 0.0045772751137909224], [-0.07782851503583559, 0.1612656516622793, 0.22495810772549263, 0.10388797535491327, -0.3606076294293033, -0.5308317730942502, -0.1767156143464767, 0.16460924706299976], [0.007895824490062615, -0.3893660217390542, 0.04224267006571017, 0.07687798294534967, -0.2724924391481177, 0.078071251014967, 0.021765962387108536, -0.36588194971461774], [0.20443942184695038, 0.10148838807782769, 0.42424873024638804, 0.5282431838585752, -0.607054236255615, -0.33446569158698375, 0.0727888088995633, 0.09522190343414863], [0.12845774642133137, 1.442356039697222, 0.16388858121604763, 0.30786147337490816, 0.3807966992641547, 0.2712529701855854, -0.11990862116411563, 0.37205573546423737], [-0.22023786031536877, -0.13194993829393753, -0.14406315241760337, 0.1396262895459492, 0.7103465957252042, -0.6573450852589714, 0.047437101558163636, -0.6003344029204147], [-0.17950980674842434, 0.42417328919237707, 0.00374466827369071, -0.3877490161830357, -0.2331827529007811, 0.2655028350901571, -0.2595757508157951, 0.12845801314799388], [-0.017944770143092786, -0.20655664014514286, 0.7510000488220682, 0.21936985554162355, -0.7250647370640226, 0.07749533624851078, -0.23964094518582849, 0.31966524296159626], [-0.3567745335134726, 0.1617475377339953, 0.10610970424427414, 0.1547010732529926, -0.2511142847327811, -0.0416171319075056, -0.1906048533488912, -0.0382565201977878], [0.5594379387561065, 0.2143142634638576, -0.44756264908818466, 0.2585438308953648, 0.8167111940281853, 0.39620763986284924, -0.5516157710008666, -0.12388809896767569]], [[0.6002036444119151], [-0.4402840267029849], [0.29918021088685776], [0.6106997883373385], [-0.4043872543187213], [-0.27960345992244956], [-1.6039103147202103], [-0.41743442116426027]]], "biases": [[[-0.008739081439016088, -0.02273186866290151, -0.03684233143488992, 0.023727369246652145, 0.04142504034238215, 0.025014790061330627, 0.05858479692534242, -0.005346440286353018, -0.06320739291131798, 0.16231103759811252, 0.13563973329192708, -0.05908069764507089, 0.018130438806231997, 0.03403787700919476, -0.04086465781353186, 0.04197982301437859]], [[-0.024826081739091937, 0.014999401169546412, 0.041856267428517384, 0.0630267539741647, -0.005997985266869763, 0.037414421721685215, -0.09369809008459296, 0.001631058255884965]], [[-0.012789167685956962]]], "config": {"input_size": 8, "hidden_layers": [16, 8], "output_size": 1, "hidden_activation": "relu", "output_activation": "sigmoid", "learning_rate": 0.01}}